digraph Tree {
node [shape=box] ;
0 [label="X[1] <= 0.5\ngini = 0.483\nsamples = 474\nvalue = [281, 193]"] ;
1 [label="X[0] <= 2.5\ngini = 0.351\nsamples = 172\nvalue = [39, 133]"] ;
0 -> 1 [labeldistance=2.5, labelangle=45, headlabel="True"] ;
2 [label="X[2] <= 3.0\ngini = 0.106\nsamples = 107\nvalue = [6, 101]"] ;
1 -> 2 ;
3 [label="gini = 0.0\nsamples = 1\nvalue = [1, 0]"] ;
2 -> 3 ;
4 [label="X[2] <= 24.5\ngini = 0.09\nsamples = 106\nvalue = [5, 101]"] ;
2 -> 4 ;
5 [label="gini = 0.0\nsamples = 38\nvalue = [0, 38]"] ;
4 -> 5 ;
6 [label="X[2] <= 25.5\ngini = 0.136\nsamples = 68\nvalue = [5, 63]"] ;
4 -> 6 ;
7 [label="gini = 0.0\nsamples = 1\nvalue = [1, 0]"] ;
6 -> 7 ;
8 [label="gini = 0.112\nsamples = 67\nvalue = [4, 63]"] ;
6 -> 8 ;
9 [label="X[6] <= 1.5\ngini = 0.5\nsamples = 65\nvalue = [33, 32]"] ;
1 -> 9 ;
10 [label="X[5] <= 13.935\ngini = 0.332\nsamples = 19\nvalue = [4, 15]"] ;
9 -> 10 ;
11 [label="gini = 0.0\nsamples = 9\nvalue = [0, 9]"] ;
10 -> 11 ;
12 [label="X[5] <= 15.621\ngini = 0.48\nsamples = 10\nvalue = [4, 6]"] ;
10 -> 12 ;
13 [label="gini = 0.444\nsamples = 6\nvalue = [4, 2]"] ;
12 -> 13 ;
14 [label="gini = 0.0\nsamples = 4\nvalue = [0, 4]"] ;
12 -> 14 ;
15 [label="X[5] <= 23.087\ngini = 0.466\nsamples = 46\nvalue = [29, 17]"] ;
9 -> 15 ;
16 [label="X[5] <= 10.798\ngini = 0.496\nsamples = 33\nvalue = [18, 15]"] ;
15 -> 16 ;
17 [label="gini = 0.432\nsamples = 19\nvalue = [13, 6]"] ;
16 -> 17 ;
18 [label="gini = 0.459\nsamples = 14\nvalue = [5, 9]"] ;
16 -> 18 ;
19 [label="X[5] <= 31.331\ngini = 0.26\nsamples = 13\nvalue = [11, 2]"] ;
15 -> 19 ;
20 [label="gini = 0.0\nsamples = 6\nvalue = [6, 0]"] ;
19 -> 20 ;
21 [label="gini = 0.408\nsamples = 7\nvalue = [5, 2]"] ;
19 -> 21 ;
22 [label="X[2] <= 3.5\ngini = 0.318\nsamples = 302\nvalue = [242, 60]"] ;
0 -> 22 [labeldistance=2.5, labelangle=-45, headlabel="False"] ;
23 [label="X[3] <= 2.5\ngini = 0.42\nsamples = 10\nvalue = [3, 7]"] ;
22 -> 23 ;
24 [label="gini = 0.0\nsamples = 6\nvalue = [0, 6]"] ;
23 -> 24 ;
25 [label="X[2] <= 2.5\ngini = 0.375\nsamples = 4\nvalue = [3, 1]"] ;
23 -> 25 ;
26 [label="gini = 0.0\nsamples = 3\nvalue = [3, 0]"] ;
25 -> 26 ;
27 [label="gini = 0.0\nsamples = 1\nvalue = [0, 1]"] ;
25 -> 27 ;
28 [label="X[0] <= 1.5\ngini = 0.297\nsamples = 292\nvalue = [239, 53]"] ;
22 -> 28 ;
29 [label="X[2] <= 53.5\ngini = 0.46\nsamples = 67\nvalue = [43, 24]"] ;
28 -> 29 ;
30 [label="X[5] <= 25.938\ngini = 0.487\nsamples = 55\nvalue = [32, 23]"] ;
29 -> 30 ;
31 [label="gini = 0.0\nsamples = 4\nvalue = [4, 0]"] ;
30 -> 31 ;
32 [label="gini = 0.495\nsamples = 51\nvalue = [28, 23]"] ;
30 -> 32 ;
33 [label="X[2] <= 75.5\ngini = 0.153\nsamples = 12\nvalue = [11, 1]"] ;
29 -> 33 ;
34 [label="gini = 0.0\nsamples = 11\nvalue = [11, 0]"] ;
33 -> 34 ;
35 [label="gini = 0.0\nsamples = 1\nvalue = [0, 1]"] ;
33 -> 35 ;
36 [label="X[5] <= 20.55\ngini = 0.225\nsamples = 225\nvalue = [196, 29]"] ;
28 -> 36 ;
37 [label="X[2] <= 13.5\ngini = 0.25\nsamples = 184\nvalue = [157, 27]"] ;
36 -> 37 ;
38 [label="gini = 0.375\nsamples = 4\nvalue = [1, 3]"] ;
37 -> 38 ;
39 [label="gini = 0.231\nsamples = 180\nvalue = [156, 24]"] ;
37 -> 39 ;
40 [label="X[2] <= 31.5\ngini = 0.093\nsamples = 41\nvalue = [39, 2]"] ;
36 -> 40 ;
41 [label="gini = 0.0\nsamples = 26\nvalue = [26, 0]"] ;
40 -> 41 ;
42 [label="gini = 0.231\nsamples = 15\nvalue = [13, 2]"] ;
40 -> 42 ;
}
