digraph Tree {
node [shape=box] ;
0 [label="X[1] <= 0.5\nentropy = 0.975\nsamples = 474\nvalue = [281, 193]"] ;
1 [label="X[0] <= 2.5\nentropy = 0.772\nsamples = 172\nvalue = [39, 133]"] ;
0 -> 1 [labeldistance=2.5, labelangle=45, headlabel="True"] ;
2 [label="X[5] <= 149.035\nentropy = 0.312\nsamples = 107\nvalue = [6, 101]"] ;
1 -> 2 ;
3 [label="X[5] <= 28.856\nentropy = 0.256\nsamples = 93\nvalue = [4, 89]"] ;
2 -> 3 ;
4 [label="X[2] <= 25.5\nentropy = 0.42\nsamples = 47\nvalue = [4, 43]"] ;
3 -> 4 ;
5 [label="entropy = 0.0\nsamples = 16\nvalue = [0, 16]"] ;
4 -> 5 ;
6 [label="entropy = 0.555\nsamples = 31\nvalue = [4, 27]"] ;
4 -> 6 ;
7 [label="entropy = 0.0\nsamples = 46\nvalue = [0, 46]"] ;
3 -> 7 ;
8 [label="entropy = 0.592\nsamples = 14\nvalue = [2, 12]"] ;
2 -> 8 ;
9 [label="X[6] <= 1.5\nentropy = 1.0\nsamples = 65\nvalue = [33, 32]"] ;
1 -> 9 ;
10 [label="entropy = 0.742\nsamples = 19\nvalue = [4, 15]"] ;
9 -> 10 ;
11 [label="X[5] <= 23.087\nentropy = 0.95\nsamples = 46\nvalue = [29, 17]"] ;
9 -> 11 ;
12 [label="X[5] <= 10.798\nentropy = 0.994\nsamples = 33\nvalue = [18, 15]"] ;
11 -> 12 ;
13 [label="entropy = 0.9\nsamples = 19\nvalue = [13, 6]"] ;
12 -> 13 ;
14 [label="entropy = 0.94\nsamples = 14\nvalue = [5, 9]"] ;
12 -> 14 ;
15 [label="entropy = 0.619\nsamples = 13\nvalue = [11, 2]"] ;
11 -> 15 ;
16 [label="X[0] <= 1.5\nentropy = 0.719\nsamples = 302\nvalue = [242, 60]"] ;
0 -> 16 [labeldistance=2.5, labelangle=-45, headlabel="False"] ;
17 [label="X[2] <= 53.5\nentropy = 0.941\nsamples = 67\nvalue = [43, 24]"] ;
16 -> 17 ;
18 [label="X[5] <= 98.752\nentropy = 0.981\nsamples = 55\nvalue = [32, 23]"] ;
17 -> 18 ;
19 [label="X[2] <= 28.5\nentropy = 0.994\nsamples = 44\nvalue = [24, 20]"] ;
18 -> 19 ;
20 [label="entropy = 0.881\nsamples = 10\nvalue = [3, 7]"] ;
19 -> 20 ;
21 [label="entropy = 0.96\nsamples = 34\nvalue = [21, 13]"] ;
19 -> 21 ;
22 [label="entropy = 0.845\nsamples = 11\nvalue = [8, 3]"] ;
18 -> 22 ;
23 [label="entropy = 0.414\nsamples = 12\nvalue = [11, 1]"] ;
17 -> 23 ;
24 [label="X[2] <= 3.5\nentropy = 0.618\nsamples = 235\nvalue = [199, 36]"] ;
16 -> 24 ;
25 [label="entropy = 0.881\nsamples = 10\nvalue = [3, 7]"] ;
24 -> 25 ;
26 [label="X[3] <= 1.5\nentropy = 0.554\nsamples = 225\nvalue = [196, 29]"] ;
24 -> 26 ;
27 [label="X[2] <= 16.5\nentropy = 0.581\nsamples = 209\nvalue = [180, 29]"] ;
26 -> 27 ;
28 [label="entropy = 0.946\nsamples = 11\nvalue = [7, 4]"] ;
27 -> 28 ;
29 [label="entropy = 0.547\nsamples = 198\nvalue = [173, 25]"] ;
27 -> 29 ;
30 [label="entropy = 0.0\nsamples = 16\nvalue = [16, 0]"] ;
26 -> 30 ;
}
