digraph Tree {
node [shape=box] ;
0 [label="X[1] <= 0.5\nentropy = 0.975\nsamples = 474\nvalue = [281, 193]"] ;
1 [label="X[0] <= 2.5\nentropy = 0.772\nsamples = 172\nvalue = [39, 133]"] ;
0 -> 1 [labeldistance=2.5, labelangle=45, headlabel="True"] ;
2 [label="X[2] <= 3.0\nentropy = 0.312\nsamples = 107\nvalue = [6, 101]"] ;
1 -> 2 ;
3 [label="entropy = 0.0\nsamples = 1\nvalue = [1, 0]"] ;
2 -> 3 ;
4 [label="X[2] <= 24.5\nentropy = 0.274\nsamples = 106\nvalue = [5, 101]"] ;
2 -> 4 ;
5 [label="entropy = 0.0\nsamples = 38\nvalue = [0, 38]"] ;
4 -> 5 ;
6 [label="X[2] <= 27.5\nentropy = 0.379\nsamples = 68\nvalue = [5, 63]"] ;
4 -> 6 ;
7 [label="X[6] <= 1.0\nentropy = 1.0\nsamples = 4\nvalue = [2, 2]"] ;
6 -> 7 ;
8 [label="entropy = 0.0\nsamples = 1\nvalue = [0, 1]"] ;
7 -> 8 ;
9 [label="X[3] <= 0.5\nentropy = 0.918\nsamples = 3\nvalue = [2, 1]"] ;
7 -> 9 ;
10 [label="entropy = 0.0\nsamples = 1\nvalue = [0, 1]"] ;
9 -> 10 ;
11 [label="entropy = 0.0\nsamples = 2\nvalue = [2, 0]"] ;
9 -> 11 ;
12 [label="X[5] <= 29.856\nentropy = 0.273\nsamples = 64\nvalue = [3, 61]"] ;
6 -> 12 ;
13 [label="X[6] <= 1.0\nentropy = 0.48\nsamples = 29\nvalue = [3, 26]"] ;
12 -> 13 ;
14 [label="entropy = 0.0\nsamples = 1\nvalue = [1, 0]"] ;
13 -> 14 ;
15 [label="X[2] <= 37.0\nentropy = 0.371\nsamples = 28\nvalue = [2, 26]"] ;
13 -> 15 ;
16 [label="entropy = 0.0\nsamples = 13\nvalue = [0, 13]"] ;
15 -> 16 ;
17 [label="X[2] <= 44.5\nentropy = 0.567\nsamples = 15\nvalue = [2, 13]"] ;
15 -> 17 ;
18 [label="X[2] <= 39.0\nentropy = 0.971\nsamples = 5\nvalue = [2, 3]"] ;
17 -> 18 ;
19 [label="entropy = 0.0\nsamples = 1\nvalue = [1, 0]"] ;
18 -> 19 ;
20 [label="X[2] <= 43.0\nentropy = 0.811\nsamples = 4\nvalue = [1, 3]"] ;
18 -> 20 ;
21 [label="entropy = 0.0\nsamples = 3\nvalue = [0, 3]"] ;
20 -> 21 ;
22 [label="entropy = 0.0\nsamples = 1\nvalue = [1, 0]"] ;
20 -> 22 ;
23 [label="entropy = 0.0\nsamples = 10\nvalue = [0, 10]"] ;
17 -> 23 ;
24 [label="entropy = 0.0\nsamples = 35\nvalue = [0, 35]"] ;
12 -> 24 ;
25 [label="X[6] <= 1.5\nentropy = 1.0\nsamples = 65\nvalue = [33, 32]"] ;
1 -> 25 ;
26 [label="X[5] <= 13.935\nentropy = 0.742\nsamples = 19\nvalue = [4, 15]"] ;
25 -> 26 ;
27 [label="entropy = 0.0\nsamples = 9\nvalue = [0, 9]"] ;
26 -> 27 ;
28 [label="X[5] <= 15.621\nentropy = 0.971\nsamples = 10\nvalue = [4, 6]"] ;
26 -> 28 ;
29 [label="X[4] <= 1.5\nentropy = 0.918\nsamples = 6\nvalue = [4, 2]"] ;
28 -> 29 ;
30 [label="X[4] <= 0.5\nentropy = 0.722\nsamples = 5\nvalue = [4, 1]"] ;
29 -> 30 ;
31 [label="X[2] <= 14.75\nentropy = 1.0\nsamples = 2\nvalue = [1, 1]"] ;
30 -> 31 ;
32 [label="entropy = 0.0\nsamples = 1\nvalue = [1, 0]"] ;
31 -> 32 ;
33 [label="entropy = 0.0\nsamples = 1\nvalue = [0, 1]"] ;
31 -> 33 ;
34 [label="entropy = 0.0\nsamples = 3\nvalue = [3, 0]"] ;
30 -> 34 ;
35 [label="entropy = 0.0\nsamples = 1\nvalue = [0, 1]"] ;
29 -> 35 ;
36 [label="entropy = 0.0\nsamples = 4\nvalue = [0, 4]"] ;
28 -> 36 ;
37 [label="X[5] <= 32.881\nentropy = 0.95\nsamples = 46\nvalue = [29, 17]"] ;
25 -> 37 ;
38 [label="X[5] <= 31.331\nentropy = 0.979\nsamples = 41\nvalue = [24, 17]"] ;
37 -> 38 ;
39 [label="X[5] <= 23.087\nentropy = 0.961\nsamples = 39\nvalue = [24, 15]"] ;
38 -> 39 ;
40 [label="X[5] <= 10.798\nentropy = 0.994\nsamples = 33\nvalue = [18, 15]"] ;
39 -> 40 ;
41 [label="X[5] <= 9.706\nentropy = 0.9\nsamples = 19\nvalue = [13, 6]"] ;
40 -> 41 ;
42 [label="X[2] <= 19.5\nentropy = 0.954\nsamples = 16\nvalue = [10, 6]"] ;
41 -> 42 ;
43 [label="X[3] <= 0.5\nentropy = 0.811\nsamples = 4\nvalue = [1, 3]"] ;
42 -> 43 ;
44 [label="X[5] <= 7.635\nentropy = 1.0\nsamples = 2\nvalue = [1, 1]"] ;
43 -> 44 ;
45 [label="entropy = 0.0\nsamples = 1\nvalue = [0, 1]"] ;
44 -> 45 ;
46 [label="entropy = 0.0\nsamples = 1\nvalue = [1, 0]"] ;
44 -> 46 ;
47 [label="entropy = 0.0\nsamples = 2\nvalue = [0, 2]"] ;
43 -> 47 ;
48 [label="X[2] <= 54.0\nentropy = 0.811\nsamples = 12\nvalue = [9, 3]"] ;
42 -> 48 ;
49 [label="X[2] <= 26.0\nentropy = 0.684\nsamples = 11\nvalue = [9, 2]"] ;
48 -> 49 ;
50 [label="entropy = 0.0\nsamples = 4\nvalue = [4, 0]"] ;
49 -> 50 ;
51 [label="X[2] <= 28.5\nentropy = 0.863\nsamples = 7\nvalue = [5, 2]"] ;
49 -> 51 ;
52 [label="entropy = 0.0\nsamples = 1\nvalue = [0, 1]"] ;
51 -> 52 ;
53 [label="X[5] <= 8.673\nentropy = 0.65\nsamples = 6\nvalue = [5, 1]"] ;
51 -> 53 ;
54 [label="entropy = 0.0\nsamples = 3\nvalue = [3, 0]"] ;
53 -> 54 ;
55 [label="X[2] <= 34.0\nentropy = 0.918\nsamples = 3\nvalue = [2, 1]"] ;
53 -> 55 ;
56 [label="entropy = 0.0\nsamples = 1\nvalue = [0, 1]"] ;
55 -> 56 ;
57 [label="entropy = 0.0\nsamples = 2\nvalue = [2, 0]"] ;
55 -> 57 ;
58 [label="entropy = 0.0\nsamples = 1\nvalue = [0, 1]"] ;
48 -> 58 ;
59 [label="entropy = 0.0\nsamples = 3\nvalue = [3, 0]"] ;
41 -> 59 ;
60 [label="X[5] <= 13.438\nentropy = 0.94\nsamples = 14\nvalue = [5, 9]"] ;
40 -> 60 ;
61 [label="entropy = 0.0\nsamples = 3\nvalue = [0, 3]"] ;
60 -> 61 ;
62 [label="X[2] <= 38.5\nentropy = 0.994\nsamples = 11\nvalue = [5, 6]"] ;
60 -> 62 ;
63 [label="X[2] <= 30.0\nentropy = 0.971\nsamples = 10\nvalue = [4, 6]"] ;
62 -> 63 ;
64 [label="X[2] <= 25.0\nentropy = 0.985\nsamples = 7\nvalue = [4, 3]"] ;
63 -> 64 ;
65 [label="X[3] <= 0.5\nentropy = 0.811\nsamples = 4\nvalue = [1, 3]"] ;
64 -> 65 ;
66 [label="entropy = 0.0\nsamples = 2\nvalue = [0, 2]"] ;
65 -> 66 ;
67 [label="X[5] <= 16.825\nentropy = 1.0\nsamples = 2\nvalue = [1, 1]"] ;
65 -> 67 ;
68 [label="entropy = 0.0\nsamples = 1\nvalue = [0, 1]"] ;
67 -> 68 ;
69 [label="entropy = 0.0\nsamples = 1\nvalue = [1, 0]"] ;
67 -> 69 ;
70 [label="entropy = 0.0\nsamples = 3\nvalue = [3, 0]"] ;
64 -> 70 ;
71 [label="entropy = 0.0\nsamples = 3\nvalue = [0, 3]"] ;
63 -> 71 ;
72 [label="entropy = 0.0\nsamples = 1\nvalue = [1, 0]"] ;
62 -> 72 ;
73 [label="entropy = 0.0\nsamples = 6\nvalue = [6, 0]"] ;
39 -> 73 ;
74 [label="entropy = 0.0\nsamples = 2\nvalue = [0, 2]"] ;
38 -> 74 ;
75 [label="entropy = 0.0\nsamples = 5\nvalue = [5, 0]"] ;
37 -> 75 ;
76 [label="X[0] <= 1.5\nentropy = 0.719\nsamples = 302\nvalue = [242, 60]"] ;
0 -> 76 [labeldistance=2.5, labelangle=-45, headlabel="False"] ;
77 [label="X[2] <= 53.5\nentropy = 0.941\nsamples = 67\nvalue = [43, 24]"] ;
76 -> 77 ;
78 [label="X[5] <= 25.938\nentropy = 0.981\nsamples = 55\nvalue = [32, 23]"] ;
77 -> 78 ;
79 [label="entropy = 0.0\nsamples = 4\nvalue = [4, 0]"] ;
78 -> 79 ;
80 [label="X[2] <= 17.5\nentropy = 0.993\nsamples = 51\nvalue = [28, 23]"] ;
78 -> 80 ;
81 [label="entropy = 0.0\nsamples = 2\nvalue = [0, 2]"] ;
80 -> 81 ;
82 [label="X[5] <= 77.79\nentropy = 0.985\nsamples = 49\nvalue = [28, 21]"] ;
80 -> 82 ;
83 [label="X[2] <= 27.5\nentropy = 0.997\nsamples = 30\nvalue = [14, 16]"] ;
82 -> 83 ;
84 [label="entropy = 0.0\nsamples = 4\nvalue = [0, 4]"] ;
83 -> 84 ;
85 [label="X[5] <= 27.15\nentropy = 0.996\nsamples = 26\nvalue = [14, 12]"] ;
83 -> 85 ;
86 [label="X[2] <= 43.5\nentropy = 0.722\nsamples = 5\nvalue = [1, 4]"] ;
85 -> 86 ;
87 [label="entropy = 0.0\nsamples = 3\nvalue = [0, 3]"] ;
86 -> 87 ;
88 [label="entropy = 1.0\nsamples = 2\nvalue = [1, 1]"] ;
86 -> 88 ;
89 [label="X[2] <= 30.5\nentropy = 0.959\nsamples = 21\nvalue = [13, 8]"] ;
85 -> 89 ;
90 [label="entropy = 0.0\nsamples = 4\nvalue = [4, 0]"] ;
89 -> 90 ;
91 [label="X[5] <= 56.415\nentropy = 0.998\nsamples = 17\nvalue = [9, 8]"] ;
89 -> 91 ;
92 [label="X[2] <= 51.0\nentropy = 0.94\nsamples = 14\nvalue = [9, 5]"] ;
91 -> 92 ;
93 [label="X[2] <= 43.75\nentropy = 0.89\nsamples = 13\nvalue = [9, 4]"] ;
92 -> 93 ;
94 [label="X[2] <= 38.5\nentropy = 0.991\nsamples = 9\nvalue = [5, 4]"] ;
93 -> 94 ;
95 [label="X[2] <= 31.5\nentropy = 0.863\nsamples = 7\nvalue = [5, 2]"] ;
94 -> 95 ;
96 [label="entropy = 0.0\nsamples = 2\nvalue = [2, 0]"] ;
95 -> 96 ;
97 [label="X[2] <= 34.0\nentropy = 0.971\nsamples = 5\nvalue = [3, 2]"] ;
95 -> 97 ;
98 [label="entropy = 0.0\nsamples = 1\nvalue = [0, 1]"] ;
97 -> 98 ;
99 [label="X[6] <= 1.0\nentropy = 0.811\nsamples = 4\nvalue = [3, 1]"] ;
97 -> 99 ;
100 [label="entropy = 0.0\nsamples = 2\nvalue = [2, 0]"] ;
99 -> 100 ;
101 [label="X[4] <= 0.5\nentropy = 1.0\nsamples = 2\nvalue = [1, 1]"] ;
99 -> 101 ;
102 [label="entropy = 0.0\nsamples = 1\nvalue = [1, 0]"] ;
101 -> 102 ;
103 [label="entropy = 0.0\nsamples = 1\nvalue = [0, 1]"] ;
101 -> 103 ;
104 [label="entropy = 0.0\nsamples = 2\nvalue = [0, 2]"] ;
94 -> 104 ;
105 [label="entropy = 0.0\nsamples = 4\nvalue = [4, 0]"] ;
93 -> 105 ;
106 [label="entropy = 0.0\nsamples = 1\nvalue = [0, 1]"] ;
92 -> 106 ;
107 [label="entropy = 0.0\nsamples = 3\nvalue = [0, 3]"] ;
91 -> 107 ;
108 [label="X[4] <= 0.5\nentropy = 0.831\nsamples = 19\nvalue = [14, 5]"] ;
82 -> 108 ;
109 [label="X[5] <= 85.638\nentropy = 0.961\nsamples = 13\nvalue = [8, 5]"] ;
108 -> 109 ;
110 [label="entropy = 0.0\nsamples = 4\nvalue = [4, 0]"] ;
109 -> 110 ;
111 [label="X[2] <= 23.5\nentropy = 0.991\nsamples = 9\nvalue = [4, 5]"] ;
109 -> 111 ;
112 [label="entropy = 0.0\nsamples = 2\nvalue = [2, 0]"] ;
111 -> 112 ;
113 [label="X[2] <= 41.0\nentropy = 0.863\nsamples = 7\nvalue = [2, 5]"] ;
111 -> 113 ;
114 [label="entropy = 0.0\nsamples = 3\nvalue = [0, 3]"] ;
113 -> 114 ;
115 [label="X[2] <= 46.5\nentropy = 1.0\nsamples = 4\nvalue = [2, 2]"] ;
113 -> 115 ;
116 [label="entropy = 0.0\nsamples = 1\nvalue = [1, 0]"] ;
115 -> 116 ;
117 [label="X[6] <= 1.0\nentropy = 0.918\nsamples = 3\nvalue = [1, 2]"] ;
115 -> 117 ;
118 [label="X[2] <= 49.5\nentropy = 1.0\nsamples = 2\nvalue = [1, 1]"] ;
117 -> 118 ;
119 [label="entropy = 0.0\nsamples = 1\nvalue = [0, 1]"] ;
118 -> 119 ;
120 [label="entropy = 0.0\nsamples = 1\nvalue = [1, 0]"] ;
118 -> 120 ;
121 [label="entropy = 0.0\nsamples = 1\nvalue = [0, 1]"] ;
117 -> 121 ;
122 [label="entropy = 0.0\nsamples = 6\nvalue = [6, 0]"] ;
108 -> 122 ;
123 [label="X[2] <= 75.5\nentropy = 0.414\nsamples = 12\nvalue = [11, 1]"] ;
77 -> 123 ;
124 [label="entropy = 0.0\nsamples = 11\nvalue = [11, 0]"] ;
123 -> 124 ;
125 [label="entropy = 0.0\nsamples = 1\nvalue = [0, 1]"] ;
123 -> 125 ;
126 [label="X[2] <= 3.5\nentropy = 0.618\nsamples = 235\nvalue = [199, 36]"] ;
76 -> 126 ;
127 [label="X[3] <= 2.5\nentropy = 0.881\nsamples = 10\nvalue = [3, 7]"] ;
126 -> 127 ;
128 [label="entropy = 0.0\nsamples = 6\nvalue = [0, 6]"] ;
127 -> 128 ;
129 [label="X[2] <= 2.5\nentropy = 0.811\nsamples = 4\nvalue = [3, 1]"] ;
127 -> 129 ;
130 [label="entropy = 0.0\nsamples = 3\nvalue = [3, 0]"] ;
129 -> 130 ;
131 [label="entropy = 0.0\nsamples = 1\nvalue = [0, 1]"] ;
129 -> 131 ;
132 [label="X[3] <= 1.5\nentropy = 0.554\nsamples = 225\nvalue = [196, 29]"] ;
126 -> 132 ;
133 [label="X[2] <= 10.0\nentropy = 0.581\nsamples = 209\nvalue = [180, 29]"] ;
132 -> 133 ;
134 [label="entropy = 0.0\nsamples = 2\nvalue = [0, 2]"] ;
133 -> 134 ;
135 [label="X[5] <= 7.91\nentropy = 0.559\nsamples = 207\nvalue = [180, 27]"] ;
133 -> 135 ;
136 [label="X[2] <= 32.5\nentropy = 0.414\nsamples = 72\nvalue = [66, 6]"] ;
135 -> 136 ;
137 [label="X[5] <= 7.865\nentropy = 0.497\nsamples = 55\nvalue = [49, 6]"] ;
136 -> 137 ;
138 [label="X[2] <= 31.5\nentropy = 0.583\nsamples = 43\nvalue = [37, 6]"] ;
137 -> 138 ;
139 [label="X[2] <= 19.5\nentropy = 0.527\nsamples = 42\nvalue = [37, 5]"] ;
138 -> 139 ;
140 [label="entropy = 0.0\nsamples = 9\nvalue = [9, 0]"] ;
139 -> 140 ;
141 [label="X[5] <= 7.24\nentropy = 0.614\nsamples = 33\nvalue = [28, 5]"] ;
139 -> 141 ;
142 [label="X[2] <= 26.75\nentropy = 0.89\nsamples = 13\nvalue = [9, 4]"] ;
141 -> 142 ;
143 [label="X[5] <= 7.096\nentropy = 0.991\nsamples = 9\nvalue = [5, 4]"] ;
142 -> 143 ;
144 [label="X[5] <= 2.006\nentropy = 0.722\nsamples = 5\nvalue = [4, 1]"] ;
143 -> 144 ;
145 [label="entropy = 0.0\nsamples = 1\nvalue = [0, 1]"] ;
144 -> 145 ;
146 [label="entropy = 0.0\nsamples = 4\nvalue = [4, 0]"] ;
144 -> 146 ;
147 [label="X[2] <= 22.75\nentropy = 0.811\nsamples = 4\nvalue = [1, 3]"] ;
143 -> 147 ;
148 [label="entropy = 0.0\nsamples = 2\nvalue = [0, 2]"] ;
147 -> 148 ;
149 [label="X[2] <= 23.75\nentropy = 1.0\nsamples = 2\nvalue = [1, 1]"] ;
147 -> 149 ;
150 [label="entropy = 0.0\nsamples = 1\nvalue = [1, 0]"] ;
149 -> 150 ;
151 [label="entropy = 0.0\nsamples = 1\nvalue = [0, 1]"] ;
149 -> 151 ;
152 [label="entropy = 0.0\nsamples = 4\nvalue = [4, 0]"] ;
142 -> 152 ;
153 [label="X[2] <= 26.5\nentropy = 0.286\nsamples = 20\nvalue = [19, 1]"] ;
141 -> 153 ;
154 [label="entropy = 0.0\nsamples = 15\nvalue = [15, 0]"] ;
153 -> 154 ;
155 [label="X[2] <= 27.5\nentropy = 0.722\nsamples = 5\nvalue = [4, 1]"] ;
153 -> 155 ;
156 [label="entropy = 0.0\nsamples = 1\nvalue = [0, 1]"] ;
155 -> 156 ;
157 [label="entropy = 0.0\nsamples = 4\nvalue = [4, 0]"] ;
155 -> 157 ;
158 [label="entropy = 0.0\nsamples = 1\nvalue = [0, 1]"] ;
138 -> 158 ;
159 [label="entropy = 0.0\nsamples = 12\nvalue = [12, 0]"] ;
137 -> 159 ;
160 [label="entropy = 0.0\nsamples = 17\nvalue = [17, 0]"] ;
136 -> 160 ;
161 [label="X[5] <= 8.104\nentropy = 0.624\nsamples = 135\nvalue = [114, 21]"] ;
135 -> 161 ;
162 [label="X[3] <= 0.5\nentropy = 0.894\nsamples = 29\nvalue = [20, 9]"] ;
161 -> 162 ;
163 [label="X[2] <= 19.5\nentropy = 0.863\nsamples = 28\nvalue = [20, 8]"] ;
162 -> 163 ;
164 [label="X[2] <= 17.0\nentropy = 0.971\nsamples = 5\nvalue = [2, 3]"] ;
163 -> 164 ;
165 [label="entropy = 1.0\nsamples = 2\nvalue = [1, 1]"] ;
164 -> 165 ;
166 [label="X[2] <= 18.5\nentropy = 0.918\nsamples = 3\nvalue = [1, 2]"] ;
164 -> 166 ;
167 [label="entropy = 0.0\nsamples = 1\nvalue = [0, 1]"] ;
166 -> 167 ;
168 [label="entropy = 1.0\nsamples = 2\nvalue = [1, 1]"] ;
166 -> 168 ;
169 [label="X[2] <= 30.75\nentropy = 0.755\nsamples = 23\nvalue = [18, 5]"] ;
163 -> 169 ;
170 [label="entropy = 0.0\nsamples = 11\nvalue = [11, 0]"] ;
169 -> 170 ;
171 [label="X[2] <= 33.0\nentropy = 0.98\nsamples = 12\nvalue = [7, 5]"] ;
169 -> 171 ;
172 [label="X[5] <= 7.988\nentropy = 0.811\nsamples = 4\nvalue = [1, 3]"] ;
171 -> 172 ;
173 [label="X[2] <= 31.5\nentropy = 0.918\nsamples = 3\nvalue = [1, 2]"] ;
172 -> 173 ;
174 [label="entropy = 0.0\nsamples = 1\nvalue = [0, 1]"] ;
173 -> 174 ;
175 [label="entropy = 1.0\nsamples = 2\nvalue = [1, 1]"] ;
173 -> 175 ;
176 [label="entropy = 0.0\nsamples = 1\nvalue = [0, 1]"] ;
172 -> 176 ;
177 [label="X[2] <= 41.5\nentropy = 0.811\nsamples = 8\nvalue = [6, 2]"] ;
171 -> 177 ;
178 [label="entropy = 0.0\nsamples = 2\nvalue = [2, 0]"] ;
177 -> 178 ;
179 [label="X[5] <= 7.988\nentropy = 0.918\nsamples = 6\nvalue = [4, 2]"] ;
177 -> 179 ;
180 [label="entropy = 0.0\nsamples = 1\nvalue = [0, 1]"] ;
179 -> 180 ;
181 [label="X[2] <= 44.5\nentropy = 0.722\nsamples = 5\nvalue = [4, 1]"] ;
179 -> 181 ;
182 [label="entropy = 0.0\nsamples = 2\nvalue = [2, 0]"] ;
181 -> 182 ;
183 [label="X[2] <= 47.5\nentropy = 0.918\nsamples = 3\nvalue = [2, 1]"] ;
181 -> 183 ;
184 [label="entropy = 0.0\nsamples = 1\nvalue = [0, 1]"] ;
183 -> 184 ;
185 [label="entropy = 0.0\nsamples = 2\nvalue = [2, 0]"] ;
183 -> 185 ;
186 [label="entropy = 0.0\nsamples = 1\nvalue = [0, 1]"] ;
162 -> 186 ;
187 [label="X[6] <= 1.0\nentropy = 0.51\nsamples = 106\nvalue = [94, 12]"] ;
161 -> 187 ;
188 [label="X[2] <= 26.5\nentropy = 0.845\nsamples = 11\nvalue = [8, 3]"] ;
187 -> 188 ;
189 [label="X[5] <= 12.848\nentropy = 1.0\nsamples = 6\nvalue = [3, 3]"] ;
188 -> 189 ;
190 [label="entropy = 0.0\nsamples = 1\nvalue = [0, 1]"] ;
189 -> 190 ;
191 [label="X[5] <= 15.394\nentropy = 0.971\nsamples = 5\nvalue = [3, 2]"] ;
189 -> 191 ;
192 [label="entropy = 0.0\nsamples = 2\nvalue = [2, 0]"] ;
191 -> 192 ;
193 [label="X[2] <= 15.5\nentropy = 0.918\nsamples = 3\nvalue = [1, 2]"] ;
191 -> 193 ;
194 [label="entropy = 0.0\nsamples = 1\nvalue = [1, 0]"] ;
193 -> 194 ;
195 [label="entropy = 0.0\nsamples = 2\nvalue = [0, 2]"] ;
193 -> 195 ;
196 [label="entropy = 0.0\nsamples = 5\nvalue = [5, 0]"] ;
188 -> 196 ;
197 [label="X[2] <= 26.5\nentropy = 0.452\nsamples = 95\nvalue = [86, 9]"] ;
187 -> 197 ;
198 [label="X[2] <= 19.5\nentropy = 0.179\nsamples = 37\nvalue = [36, 1]"] ;
197 -> 198 ;
199 [label="X[2] <= 18.5\nentropy = 0.414\nsamples = 12\nvalue = [11, 1]"] ;
198 -> 199 ;
200 [label="entropy = 0.0\nsamples = 9\nvalue = [9, 0]"] ;
199 -> 200 ;
201 [label="X[3] <= 0.5\nentropy = 0.918\nsamples = 3\nvalue = [2, 1]"] ;
199 -> 201 ;
202 [label="X[0] <= 2.5\nentropy = 1.0\nsamples = 2\nvalue = [1, 1]"] ;
201 -> 202 ;
203 [label="entropy = 0.0\nsamples = 1\nvalue = [0, 1]"] ;
202 -> 203 ;
204 [label="entropy = 0.0\nsamples = 1\nvalue = [1, 0]"] ;
202 -> 204 ;
205 [label="entropy = 0.0\nsamples = 1\nvalue = [1, 0]"] ;
201 -> 205 ;
206 [label="entropy = 0.0\nsamples = 25\nvalue = [25, 0]"] ;
198 -> 206 ;
207 [label="X[4] <= 0.5\nentropy = 0.579\nsamples = 58\nvalue = [50, 8]"] ;
197 -> 207 ;
208 [label="X[2] <= 32.5\nentropy = 0.65\nsamples = 48\nvalue = [40, 8]"] ;
207 -> 208 ;
209 [label="X[2] <= 30.5\nentropy = 0.831\nsamples = 19\nvalue = [14, 5]"] ;
208 -> 209 ;
210 [label="X[5] <= 10.0\nentropy = 0.567\nsamples = 15\nvalue = [13, 2]"] ;
209 -> 210 ;
211 [label="X[2] <= 27.5\nentropy = 1.0\nsamples = 4\nvalue = [2, 2]"] ;
210 -> 211 ;
212 [label="entropy = 0.0\nsamples = 1\nvalue = [0, 1]"] ;
211 -> 212 ;
213 [label="X[2] <= 29.5\nentropy = 0.918\nsamples = 3\nvalue = [2, 1]"] ;
211 -> 213 ;
214 [label="entropy = 0.0\nsamples = 2\nvalue = [2, 0]"] ;
213 -> 214 ;
215 [label="entropy = 0.0\nsamples = 1\nvalue = [0, 1]"] ;
213 -> 215 ;
216 [label="entropy = 0.0\nsamples = 11\nvalue = [11, 0]"] ;
210 -> 216 ;
217 [label="X[5] <= 11.75\nentropy = 0.811\nsamples = 4\nvalue = [1, 3]"] ;
209 -> 217 ;
218 [label="entropy = 0.0\nsamples = 1\nvalue = [1, 0]"] ;
217 -> 218 ;
219 [label="entropy = 0.0\nsamples = 3\nvalue = [0, 3]"] ;
217 -> 219 ;
220 [label="X[5] <= 13.25\nentropy = 0.48\nsamples = 29\nvalue = [26, 3]"] ;
208 -> 220 ;
221 [label="X[5] <= 10.0\nentropy = 0.672\nsamples = 17\nvalue = [14, 3]"] ;
220 -> 221 ;
222 [label="entropy = 0.0\nsamples = 4\nvalue = [4, 0]"] ;
221 -> 222 ;
223 [label="X[2] <= 64.0\nentropy = 0.779\nsamples = 13\nvalue = [10, 3]"] ;
221 -> 223 ;
224 [label="X[2] <= 56.5\nentropy = 0.845\nsamples = 11\nvalue = [8, 3]"] ;
223 -> 224 ;
225 [label="X[2] <= 34.5\nentropy = 0.722\nsamples = 10\nvalue = [8, 2]"] ;
224 -> 225 ;
226 [label="entropy = 1.0\nsamples = 2\nvalue = [1, 1]"] ;
225 -> 226 ;
227 [label="X[2] <= 40.5\nentropy = 0.544\nsamples = 8\nvalue = [7, 1]"] ;
225 -> 227 ;
228 [label="entropy = 0.0\nsamples = 4\nvalue = [4, 0]"] ;
227 -> 228 ;
229 [label="X[2] <= 46.0\nentropy = 0.811\nsamples = 4\nvalue = [3, 1]"] ;
227 -> 229 ;
230 [label="entropy = 1.0\nsamples = 2\nvalue = [1, 1]"] ;
229 -> 230 ;
231 [label="entropy = 0.0\nsamples = 2\nvalue = [2, 0]"] ;
229 -> 231 ;
232 [label="entropy = 0.0\nsamples = 1\nvalue = [0, 1]"] ;
224 -> 232 ;
233 [label="entropy = 0.0\nsamples = 2\nvalue = [2, 0]"] ;
223 -> 233 ;
234 [label="entropy = 0.0\nsamples = 12\nvalue = [12, 0]"] ;
220 -> 234 ;
235 [label="entropy = 0.0\nsamples = 10\nvalue = [10, 0]"] ;
207 -> 235 ;
236 [label="entropy = 0.0\nsamples = 16\nvalue = [16, 0]"] ;
132 -> 236 ;
}
